11 300
le -0.00017874353 7.881095e-05 0.0017011272 0.00300311 -0.0031010027 -0.0023722844 0.002152971 0.0029910146 -0.0016718198 -0.0012544651 0.0024601836 -0.0005111603 -0.0015122138 0.0021846977 -0.0016200636 -0.00060534297 0.0009588659 0.00033062664 -0.0027617556 -0.0031496258 0.0024372707 0.001690098 0.0022525787 0.00025429012 0.0021169768 -0.0011351291 -0.0003154691 0.0019228697 -0.0025072282 -0.0013120428 -0.0025038763 -0.00031001604 0.0031793928 -0.0024397376 -0.00077792775 -0.0006459177 0.0026924957 -0.0019769776 1.5054241e-05 -0.0015845879 -0.0032012034 0.0016691082 -0.00291988 -0.001463951 -1.1700068e-05 -9.872777e-05 -0.0025537629 0.0032049343 0.0016606963 0.0030777338 -0.0027193227 0.0014986088 -0.001379034 0.0002748471 0.002832891 -0.0014874015 0.0015058429 -0.0022623343 -0.001182837 0.0031328555 -0.00052588753 0.00010712452 -0.0013802185 -0.0025609122 -0.00050267257 0.0008232701 -0.00029601084 0.0018445655 -0.0009143314 0.00075335975 0.0018186095 0.0027820019 -0.00048458323 -0.0030694003 0.0014568599 0.00019059618 0.0024806517 -0.00027109592 -0.00087947684 -0.0029176879 -0.00028552074 0.0009421936 0.0018004876 0.0023509 -0.0019010523 0.0006196105 0.002029634 -0.0015993604 -0.00103576 0.0022658908 0.0005438286 6.330609e-05 0.0011578862 7.259295e-05 0.0032062954 0.0016868785 -0.002972482 -0.0023472016 0.00030048718 0.002130858 -0.002873247 0.0012219204 0.0017299721 0.0019139914 0.0024889885 -0.0020559046 0.0003685402 0.0020157732 -0.0009466894 -0.0020578536 -0.00013674186 -0.002789667 -0.0018666824 0.0023681945 0.0011175202 0.0024085718 0.0022667632 0.002510263 -0.0012630593 -0.00018726983 0.00078279705 -0.0015063535 0.0027962613 -0.003286075 0.0022548945 0.0009714783 -0.0016442874 0.0014660717 -0.0005798618 0.002237142 0.0033216374 -0.0014541569 -0.00019978052 -0.0018985576 0.0012836155 0.0009288814 0.0022970398 0.0020337114 0.0031795187 0.0030911583 0.002632706 -0.0023298494 -0.003051974 -0.000118584976 -0.0010332868 0.0026314554 0.001979537 -0.0005152242 0.0005036576 0.000596684 0.0026058734 -0.003170082 -6.85108e-05 0.0011564061 -0.0003129927 0.0027939414 0.0030036133 0.0021788492 -0.0002372085 0.002570151 -0.002844796 0.0010690421 -0.0015460087 -0.001696329 0.0011965468 0.0017901242 0.0025898544 -0.0019221808 0.0024778026 0.0022085125 -0.0012366078 -0.002915232 0.0018125003 0.002169932 -0.00026251836 -0.0022366326 -0.0023619898 -0.00083235867 0.0017144287 -0.0012217535 -0.0031233728 0.001275588 0.0016281699 -0.002142868 0.00040285522 -0.00069163 8.134495e-06 -0.0032945236 0.0008973404 -0.0015833786 0.0003625511 -0.0005254115 0.000732229 -0.0026272084 -0.0009057336 0.0008877384 0.0017822385 -0.0007971766 -0.0031700511 0.001501969 3.152152e-05 0.0010257796 -0.002270896 -0.00045849135 0.0025562097 0.0024488186 -0.00122444 0.0008809061 -0.002772394 0.0020685084 -0.0015457838 -0.0010547088 0.0031038048 0.0002911304 0.0024969166 -0.0020247002 0.0017201797 0.0033076282 -0.0028191481 -0.0017119078 -0.0023549604 -0.0016208941 -0.0012595291 -0.0028454175 0.0026518852 -0.0016146563 0.0028078887 0.001754201 -0.0021833556 0.0013192986 0.0018233946 -0.0024755276 -0.0024685885 -0.00082508207 -0.0028752598 -0.00052719406 -0.00013447845 0.0010999017 0.00048062982 -0.00029380902 -0.0018646977 0.00057679217 -0.0002991258 0.002264578 0.0013245383 0.0015098333 0.00047810498 -0.0008999575 -0.0014556133 -0.00034402704 0.00047901215 -0.00088200846 -0.0023579423 -0.0026017854 -0.0030406145 -0.0019784023 -0.000615812 -0.0014412993 -0.0021535703 -0.0012391153 0.0014297285 -0.0012463556 0.0027927426 0.00051133434 -0.0024141218 0.0031446193 0.0025437532 0.0018311054 -0.0022829627 0.001940905 0.0013363727 0.0017284673 0.0014186427 0.0006465889 -0.0010567275 0.0027846324 0.00320408 0.0012642089 -0.000945671 2.375856e-06 0.00040627533 -0.0028194592 -0.0027413322 -7.700571e-05 0.00041243178 -0.0019144722 -0.0015751012 -0.002448707 0.0027762225 4.0432868e-05 -0.0015031424 0.0019005802 0.0030600242 -0.0013666325 0.0026549103 0.0017918226 0.0019597202 0.00017086453 0.0027377119 -0.0023396949
jardin -0.0027475592 0.003099785 -6.5886976e-05 -0.0006557588 0.0015345435 -0.0013651053 0.0009143714 0.0023133222 0.0020218086 -0.002503598 0.0031274501 0.0015572695 0.0013220402 -0.0020811686 0.002819993 -0.00071672164 0.0029417293 -0.0017873343 -0.0027098064 0.002274853 0.0005570642 -0.0007328363 0.0031712004 0.0031646185 -0.0032580157 0.00083507615 0.0020522308 0.0012908188 0.00067426247 0.00014350057 0.00022454381 -0.0012735454 -0.0023800833 -0.00069629075 0.001307966 0.0029395611 0.0030863835 -0.0019919788 -0.0031342236 0.0032547922 0.0011432616 0.001722039 0.0020941151 -0.0009347542 0.0024409012 0.0009434239 0.00095700147 -0.0007934566 -0.0010427498 -0.0007900472 0.0014254788 2.5352638e-05 -0.0031947596 -0.003221848 -0.002049398 -4.2856533e-05 0.00066580536 0.0031439892 0.0018614503 -0.0014302321 9.277224e-05 0.0016547863 0.0025661031 -0.00038140774 0.0014411402 -0.0019381265 -0.00026806354 0.0027000168 -0.00078668835 -0.003221152 0.0019264201 -0.0013099408 -0.00040762423 0.0033268393 -0.00075211684 -0.0015856882 -0.0017764624 0.0023269632 -0.0019029573 0.0007045543 -0.0017518866 0.002040238 0.0014524356 0.00086878496 -0.00049702765 -0.00091535447 0.0029976456 0.0017385916 -0.0007208399 -0.00315677 -0.0024753506 -0.0003545805 -0.00026498237 -0.00085430307 0.0032275736 -0.00015284022 0.0019579204 -0.002482529 -0.00083535793 -0.0018499545 -0.0023796717 0.0004136769 -0.0023922387 -0.000748206 0.0012397679 0.0019443746 0.00039939443 0.0007009105 -0.0013701303 0.0024084444 -0.0021023473 0.0015490719 -0.002739991 0.0006788226 -0.0016590174 -0.001415896 -0.001036328 0.0018850697 0.0019328002 -0.0016582164 0.00025777696 -0.0028319259 0.0026032687 0.003085764 -0.0009141092 0.00026674112 0.00024888397 0.0018259616 -0.0028686929 0.00019481858 0.0022898074 0.0007438648 0.00037489214 -0.0031073852 0.0028274555 -0.0020880424 -0.0009974579 0.0011645957 -0.00025754253 0.00047043044 0.00059399725 -0.0022762998 -0.0032416037 0.0030135282 0.0020660183 -0.0023043093 0.0011344942 6.8687994e-05 0.0015845819 -0.0023733142 0.001342318 0.0014491447 0.0033191233 -0.0014912466 -0.00046308796 -0.002439107 -0.0032326097 -0.0030267525 -0.0003409183 -0.0021677634 0.0016165761 -0.0020546755 0.0008397285 0.0002464803 -0.001130718 -0.00032640775 0.003326375 0.003048629 -0.0014872765 0.0030276754 -0.0018805878 0.001976974 -0.0010324061 0.0011439172 0.0010057421 0.0023001535 -0.00079129456 0.002925012 0.0025298095 -0.0031825488 -0.002669403 -0.0025459656 0.0009744191 -0.0009315741 -0.0023098402 -0.0027094213 0.0027697266 0.00066349626 -0.0031093392 -0.0015975721 0.0010455796 -0.0015710688 0.0017602809 -0.0014111471 0.0008805986 -0.0026818959 0.002069962 0.0016062963 0.00026239752 0.0010044825 -0.002909161 0.00071005384 -0.0002911814 -0.003106363 -0.003142714 -0.00047023932 0.0014774696 0.0012346903 -0.0021662312 -0.0022910226 -0.0016664708 -0.0007622814 -0.0024167625 -0.003201106 -0.00091454305 -0.0027876135 -0.0020129585 -0.0018903096 -0.0007813791 -0.00056899904 -0.0029856663 -0.00024506648 0.0027175022 0.0025634766 -0.0024020385 -0.0012222771 0.0010395173 -0.0031902408 0.0004921464 0.0021748221 0.0019154731 -0.0029210206 -0.0015057146 -0.002713387 1.531879e-05 0.0030878778 0.001991102 0.0016891026 0.0016870209 -0.0010809724 0.003184061 -0.0024521414 -0.0024234625 -0.0007551297 -0.00025952022 -0.0010720345 -0.0001975286 0.0024962744 -0.0002325062 -0.0005416469 0.00091479975 -0.002786367 0.0026186013 0.0028453679 -0.0031946958 0.00081542216 0.003301657 -0.002555268 -0.0023223062 -0.002578839 0.002798641 -0.00022711197 0.0030481361 -0.002719407 0.0012476948 0.00087834755 0.00024757106 0.00077589194 -0.002489698 -0.003119458 0.0007848589 0.002049485 0.0026618962 0.0019119648 -0.00025911213 0.0027687217 -0.0031121047 0.0011353774 8.891781e-05 0.0012857481 0.0024619277 -0.0022417223 0.0018614936 -0.003174075 -0.00026815294 -0.0028962458 -0.0016995576 0.003096409 -0.0006194206 0.00097147544 0.00302376 0.0029793775 -0.002736145 -0.0010041046 0.0032955352 0.001701477 -0.00052936235 -0.0028973406 0.0009871721 -0.0022252994
dans 0.002710779 -0.0014857894 -0.0003561652 0.00033537956 -6.362504e-05 0.00038278938 0.0020379107 -6.8343916e-06 -0.0010819521 -0.00050354697 0.001965715 0.0005047171 -0.00024138317 0.0031110456 -0.0016403963 -0.000279456 0.003058465 0.0022498148 0.0005010264 -0.0029607909 0.00038285487 -0.0007628003 0.0031227071 0.00040330522 0.0004966364 0.00080217095 -0.0006119979 -0.0016666048 7.754167e-05 -0.00067136384 0.0022003895 0.0029800676 -0.00022500157 0.0009924074 -0.0020358777 0.0005664618 -0.002308828 -0.002897976 -0.0019667472 -0.0029854695 0.0024259628 -0.0019240655 0.0027588767 -0.0024144924 0.0011405657 0.0032250222 -0.0025950996 -0.0033151226 -0.0014431006 -0.0008944618 -9.036019e-05 -0.0029439074 -0.0028725015 0.00093340233 -0.0027355591 -0.0030230926 -0.00078019896 -0.002877229 -0.002352201 -0.0028004819 -0.00010043003 -0.0015214451 0.0022091076 0.00050912274 -0.0011138192 0.0020363156 -0.0020044332 -0.0015521138 -0.0024024944 -0.0014455552 -0.0006031607 0.0021631562 -0.0009234576 0.0016397452 0.0023014576 -0.0024879223 0.0015215623 0.002042346 -0.0009848083 0.0022084299 0.00204198 -0.002147866 -0.002254911 0.00084626424 -0.00054122735 -0.0020217379 0.0031663703 -0.0017100183 -0.002184686 -4.0020444e-05 -0.0009004957 0.00014813272 -0.00117919 -0.00013977961 -0.00023628946 0.00027423177 0.0027316995 -0.0019121873 -0.0005531872 0.0018571592 0.0027227981 -0.0014810517 0.0029951187 0.0027511895 -0.0014784809 0.00010108871 0.0014248298 -0.0013088336 -0.001853309 -0.0021707346 -0.00022357728 -9.8569166e-05 0.0014877525 -0.0008247509 -5.7565554e-05 0.00082056824 0.0016224846 -1.0334314e-05 -0.0021131171 -0.0030869502 8.86572e-06 0.0022206842 0.0004886052 -0.0029887746 -0.0026462763 0.002183956 -0.001261859 0.0020849728 -0.0022270097 0.002826514 -0.0021722072 0.001096051 -0.00035232567 -0.0022624743 -0.0010959056 -0.00038716372 -0.0018237173 -0.00040383753 -0.0025212022 0.00088214566 0.0030233338 -0.0007923616 -0.00032542663 0.0011711975 0.002888407 -0.001974031 -0.0022959246 -0.0009776544 0.0030492381 0.0002887423 -0.0028928856 -0.00048224756 0.0031598434 -0.0025165414 -0.0017860361 0.0031054681 -0.0029913383 0.0012752544 0.00022182103 0.0022201813 0.0027710085 -0.0009502953 -0.0013307395 0.002966035 0.0006965221 0.0020829474 -0.0031486582 0.0031967775 -0.00044950284 -0.0020174412 0.0009975497 -0.00015212937 0.0015687939 -0.00076106784 -0.0013792828 0.00075936207 0.0027848731 -0.0016651909 0.0008895209 -0.0026635034 -0.002257716 -0.00015592348 -0.0029226362 0.0009298737 0.0005328581 -0.0007732178 0.0016679405 0.0032497009 0.0028180836 -0.0006267048 0.00068604556 -0.0013345579 -0.0027471713 0.0020927328 -0.00064970786 -0.00022209252 -0.00059049367 -0.0015118774 0.0013539934 -0.0014234411 -0.0031928695 0.0029810306 0.0013884236 0.003078276 0.0022144488 0.00097485515 0.0032680589 -0.0014749124 -0.0022677132 0.0014090823 0.0012430476 -0.0018881883 0.0032348603 -0.0011861172 0.003183091 0.000278296 -0.0021128764 -0.0006591285 -0.002458961 -0.0009931363 0.00034729534 0.0031609577 0.0031186678 -0.0021985662 0.0011583226 0.0007585699 -0.00082986173 -0.0030764553 0.0003424339 -0.0027219532 0.002106696 -0.0019333083 0.0018452216 0.0032779498 -5.3259595e-05 0.0015095206 -0.00060313375 0.002453574 0.0013133615 -0.0030034527 -0.0007994582 0.0012095823 -3.3181946e-05 -0.00040048454 -0.00035184922 -0.00055724295 0.00020163978 0.001388397 -0.0014175685 -0.001277873 -1.7618091e-05 8.980858e-05 -5.6208286e-05 -0.0015951118 0.0014378881 -0.0007239266 0.00070120016 0.0002222129 0.0019899602 -0.002280776 -0.0022719547 -0.001492063 0.003145224 -0.0005306441 -0.0031430384 -0.00018176279 -0.0014830491 0.0019999917 -0.0031945228 0.00095295627 -0.003084331 0.00041655832 0.0019997086 0.0024657813 -0.0025404764 -0.002017759 -0.002279577 -0.0026394958 -0.0031663554 -0.0007085034 -0.0002786564 -0.0024186764 0.0022624305 0.00037321087 0.0019429572 0.00049100793 0.0002631642 -0.0024559954 -0.0007256288 0.0014403677 -0.0016950767 0.00037688317 0.0009610484 -0.00051208824 0.0033107174 0.0027831825 0.0008051767 0.002372759 0.0019637542 -0.001860157
manger -0.0017187477 -0.0022227792 -0.0025922784 0.0027702427 -0.00066078064 -0.0022849878 -0.0013847963 0.0017147087 -0.00095637876 -0.0012498867 0.00054047507 -0.00092543126 -0.0005281202 0.0003581639 -0.0009926482 0.0028397609 0.001303645 -0.003319621 0.0020865332 -0.002251418 0.0002564776 0.0014680783 -0.001701125 -0.0007035565 0.002698493 -0.0014145974 -0.0025454203 0.0030859709 -0.000718499 -0.0015731442 0.0028569333 0.0014277796 0.0014416123 0.0030948378 -0.0028176936 0.0017517734 0.0006797838 0.0013960934 0.00056596677 0.0014880446 0.0014954301 0.0020348406 -0.0010673658 -0.0015252427 -0.00014217218 0.00084457797 -0.0010877224 0.0020192394 0.0013847101 0.0025881974 0.00085642416 0.002705561 -0.0004624033 0.0026926426 0.0012390054 -0.0026824414 -0.0013112049 -0.00082395953 0.0016310147 -0.00029071968 -0.0009436361 0.0026112357 0.0031076337 -0.0005383094 -0.0017197498 -0.0015672529 -0.0016153503 -0.003200942 0.0004573401 -0.0014083051 0.0008422363 0.0018714945 -0.0013553019 -0.0031988604 0.00051556586 -0.0022333742 0.0008317248 -0.0012602106 0.0023594736 0.00021340688 0.0011869796 -0.0009130446 -0.0005701824 0.002550931 0.00046922604 -0.0019501495 -0.0026114988 0.00041089574 0.0021515437 0.0018521165 -0.00299235 0.0028640549 0.0013489926 0.0024898683 0.0032487782 -0.00242986 -0.0030133207 0.0019453334 0.003130404 0.001168975 0.0023629323 -0.0005226433 0.0026491662 -0.0031628862 -0.0026764998 -0.0022134571 -0.0013344848 0.0016630722 -0.0012711863 -0.0027733017 0.0028039257 -0.0012490007 0.0028695655 -0.0016319172 0.0013061981 0.0016406723 0.0007975364 -0.0009396013 0.0009497082 -0.0027520787 -0.0009218466 -0.0008637194 0.0024163353 -0.0011544677 -0.002199901 0.0014468089 -0.00015816173 -0.0011991855 0.0022941574 0.0012907707 -0.0013000671 0.00025729617 0.0030478342 0.0025848853 0.002120624 0.0015557675 0.0007948299 -0.0006138754 -0.0021237643 -0.0001006035 -0.0005217962 -0.00019076189 -0.0020876236 0.0024780158 -0.0021971643 -0.0024130924 -0.0009190488 -0.0005051335 -0.0025452392 0.000232747 -0.0017753704 -0.00042518138 -0.002455037 0.0006535228 0.0010910662 -7.712841e-06 -0.0018161193 -0.00057536206 0.002361639 0.0012454196 -0.0029603497 -0.0011378503 0.00078470074 0.00071267324 -0.0031546692 0.001523722 -0.002885666 -0.0024623561 0.0011610372 -0.0011569861 0.001188157 0.0029646968 -0.0011914409 0.0031068083 0.00057034614 0.0032825915 0.0019016811 -0.0030498279 -0.0011092436 0.002176725 0.0018675931 0.0029018386 0.002308701 0.0026796293 -0.0032743362 0.0014329418 -0.0016766922 0.0011707954 0.002018896 0.0014640439 0.0025041199 0.00049923855 -0.00042164724 0.0019228001 -0.0018798558 1.2863875e-05 0.0031521956 -0.0018270834 0.0012714263 -0.0027043403 0.0032567645 0.0027217045 0.0004269906 0.0016991929 0.00046937625 -0.0021517205 -0.000476017 0.0021497218 -0.0015391019 -0.0013310218 0.0016414683 0.0009043662 -0.00061599177 -0.0009589811 0.002003577 -0.0019055796 -0.0010789009 -0.0021626083 -0.001411544 -0.0028603314 -0.0014899297 -0.0028370766 0.00046792586 -0.002872732 -0.003305552 -0.002733875 -0.0022575553 0.0022268617 0.0012615188 0.00011872212 -0.0009859939 -0.0024761069 0.00017780621 0.00016663075 6.520629e-05 0.00028419853 0.00026211023 -2.2720098e-05 -0.002669018 -0.0019567576 -0.002794304 -0.00043734748 0.000606879 0.002472376 -0.0006544757 -0.0007750972 0.0031623847 2.6568174e-05 -0.0008015072 0.0028682824 0.0008956679 -0.0017813242 0.0021960353 0.0015033846 -0.0023514892 -0.00010772466 0.00027816216 0.0019157858 -0.0005725515 -0.00093551 0.00058281026 0.0002823905 0.00039760908 -0.00087809406 -0.0019952615 0.0024409946 0.0025291252 0.0027654525 -0.0028662824 0.0008788085 -0.0011866542 0.0032068014 0.0009679226 0.0015470377 0.00079520507 0.0022028259 -0.0019144301 0.0026314708 -0.0008036407 -0.0015206286 -0.0006869968 0.0032445192 -0.00228553 -0.0007305733 0.0023336664 -1.858314e-05 -0.0020983224 -0.0021311752 0.0029801317 0.0021431919 0.0015911977 -0.0010873493 -0.0030892065 0.001262296 0.00238685 -0.0018776298 -0.002621671 -0.0009909134 -0.0016439661 -0.0007717037
aiment -0.00064807216 -0.0017558404 0.0031490377 -0.0030995775 0.0015013159 0.0018013926 -0.00046975413 0.0030023642 0.00329512 -0.0018250144 -0.0020070001 -0.002248991 -0.0026316273 -0.0010159723 -0.0018646757 -0.00278156 0.0002609674 0.0009982189 0.002138248 -0.0008763166 -0.0014844922 0.0004165236 0.00013048729 0.0027056662 6.093343e-05 0.0024105287 -0.0027548384 0.0028111788 -0.00062963646 0.0029003846 -0.0025389458 0.0005987954 0.0003521621 1.5335083e-05 -0.0017010844 -0.003082566 -0.0024214056 -0.0026503913 0.00063790916 0.00015948892 -0.00060437917 0.0023733885 -0.0008252307 -0.00044910313 -0.0029668545 -0.003308471 0.0029831326 -0.0019179793 -0.0021243326 0.0017331358 0.0022233312 -0.0022772138 0.00031992 -0.0020028246 0.00054911454 -0.0014297597 -0.0011469325 0.00072855555 0.0028871926 0.0022427035 -0.0032256858 -0.0018740348 0.0026267774 0.00066311914 -0.0014186839 0.00019960404 0.0031736537 -0.0003675723 -0.003141546 0.0005361366 0.0020774514 0.0020941233 0.0013638834 -0.001883413 -0.0001235644 -1.8439292e-05 0.0015239319 -0.0026805298 -0.0026727696 8.825024e-05 -0.0028694333 0.0019400521 -0.00013927062 0.003323726 -0.0017813258 -0.00016204636 0.002585591 -0.0013559775 -0.0016719667 0.0005300236 0.0008835645 -0.0008549865 0.002149176 -0.0025533175 0.0011311868 0.00016332348 0.0029107276 0.001994238 0.0022717873 0.0026075148 -0.0031667065 0.0031874077 -0.0025902519 -0.000881836 -0.0016354696 -0.0016555655 -0.0026745303 -0.0025945283 -0.0015177373 -0.00042512058 -0.0017009962 0.0020468473 -0.0031722065 -0.0017690349 0.0031457173 0.0023304431 0.0025586053 0.0014115799 0.00016903083 -0.0019937146 0.002006259 0.0008783436 0.0025664777 0.002131281 0.0026475235 0.0028858022 -0.003298585 -0.0022519017 0.00044585823 0.0021467677 0.0024579386 0.0018389936 0.002553875 -0.0017085227 0.0021948032 -0.0013694577 -0.0030184477 0.0030472267 0.0004438015 -0.0009198932 -0.0008259475 -0.0014068262 0.0016041123 0.0014667407 -0.00088445423 -0.0024472936 -0.0011886172 -0.00011220495 0.002031964 -0.0009457795 -4.0298302e-05 0.00029324213 -0.0023652164 0.00068833394 -0.00047747453 0.00093404966 0.0016140739 -0.0004506731 -0.00092671433 0.002579549 0.0016818662 0.0022378406 0.0015052144 0.0028890518 0.0024916565 -0.00036062917 0.0029158795 0.0015339061 0.0018135444 -0.0004620282 -0.00068043947 -0.0014747818 -0.002838399 0.001012576 0.0029610642 0.0029732473 -0.0006474515 0.0020287193 0.0012599078 -0.0014319884 0.00068097474 -0.0018126285 0.0027362974 0.0018109696 0.001061478 0.0013675229 0.0028857167 0.0024240117 -0.0002778244 -0.0023575893 0.002793491 0.0024111946 0.00057682395 -0.00044916393 -0.001963364 -0.0015110302 0.0028826555 -0.0010450359 -0.0021129397 0.0032900258 0.0025655488 0.003040214 0.0003785006 -0.0027750265 0.0028083387 -0.0012320769 0.0019140578 0.0014638599 0.0032299818 -0.0030978327 0.0030694683 -0.0030938426 -0.0023025707 -0.0030340648 -0.0018490367 0.0024562986 0.0030548258 -0.0011084505 0.0012410168 -0.0012084012 0.002627157 0.0019556251 6.953875e-08 -0.0012095582 -0.002408102 0.0015895386 0.00048432627 -0.0008710619 0.0026126022 -0.0013498715 -0.003049662 -0.0007518236 4.1715703e-05 -0.002213085 -0.001828872 -0.002833259 0.0030766244 0.002474676 -9.841442e-05 0.0024558879 0.002650263 -0.00026119113 0.0022040303 0.0012558412 0.0016922808 0.0024176638 -0.0015797964 -0.000728511 0.00029104113 0.0014120686 0.0011014438 0.0016986092 0.0015288285 -0.002812836 -0.0010612798 -0.0024122533 0.003227141 0.0016688665 5.6947072e-05 0.0013709926 -0.0025520436 -0.002098217 0.0010254645 0.0021782129 0.0013166249 0.0020060074 -0.00066204387 -0.0011150432 6.905675e-05 -0.0010647869 -0.0018389683 -0.0025961867 0.0021785144 -0.00036344567 -0.0006302933 -0.0026015916 0.0031125243 0.00028938055 0.00058987894 0.00083055533 -0.0024619976 0.0005462742 0.0009921876 -0.0028556765 0.001651934 0.00081113615 0.0024993042 0.0016814327 -0.0010105721 -0.0023876457 0.0023654043 0.00063384493 0.0017330785 0.0021270362 0.0006374264 -0.002042537 -2.0988782e-06 0.0027560992 -0.0020328495 0.0031460936
chiens -0.002396981 0.0014109635 0.00072113157 0.0024802382 -0.0016297551 -0.0015214487 -0.0020327247 0.0010997892 -0.001499821 0.0028409616 -0.001429609 -0.00303514 -0.0016054519 0.00213883 -0.0021237747 -0.0017538456 -0.0024348036 0.0020074204 0.001119198 0.00094946346 -0.0010461835 0.002010297 -0.0020509153 -0.0006600336 -0.0019943607 -0.00033189336 -0.000673662 0.0028286485 2.6000342e-05 -0.002858442 -0.0018096996 -0.0022919953 0.0008974604 0.0031522159 -0.0019386653 0.0027550086 0.0028440172 -0.002354213 -0.002961071 0.0031563945 0.0027914548 -0.0015636305 -0.0022420136 0.0026140455 0.0012544486 0.0026985013 -0.0025238486 -0.0031750281 0.00052580197 -0.0032685893 -0.0016286281 -0.0011533678 0.0032069744 0.002874523 -0.0009452025 0.0019422908 0.0027456982 -0.000754327 0.0031761804 0.0023867385 0.0006805003 -0.0012829212 -0.0016939167 -0.0010172176 0.002629288 -0.0020634783 -0.0009716741 0.003063674 0.0011522186 0.002024204 -0.0026776055 -0.00025050165 0.001840816 -0.0015714896 0.002492831 0.0031065305 -0.00013645609 -0.000687867 -0.0001977861 -0.0019286298 -0.0027954273 -0.00050229114 -0.0008523945 0.0014608112 -0.0022891725 0.0018045652 -0.002248362 -0.002606763 0.002823904 0.0029728715 -0.0011604134 0.0011638049 -0.0019319117 -0.0029166953 -0.0018385239 0.0022495762 0.0021392533 0.0031460247 0.0023517616 0.002251651 0.00043338895 -0.0032681008 0.0015292541 -0.0001794076 0.0021106987 0.00059449155 -0.001043266 0.0025866576 0.0005182219 1.8403132e-05 -0.0015376512 -0.0028178415 -0.002588944 0.00289017 -0.0029749866 0.003011572 -0.0030936727 -9.225209e-05 -0.0006356824 -0.0029770485 0.0028766866 0.0022592712 0.0010064796 0.0016111509 3.739675e-05 0.0031415601 0.0023404292 -0.0032845757 -0.0014777402 -0.00043003718 0.0010159075 -0.0014413174 0.0004830555 -0.0026152995 0.0009260245 0.001567564 0.0016457709 -0.0010585673 -0.0028090135 -0.0030735394 -0.00024096647 -0.0024424882 -0.0022716543 0.002040002 0.0023907677 0.0007058064 -0.0026331337 -0.0018996628 0.0026839483 0.0013069479 -0.0017468234 -0.0024639682 0.0002571849 0.0011545849 0.00069306453 0.0010336014 -0.0018735 -0.0032964952 -0.002340279 7.676959e-05 0.0015395598 0.0015087692 0.00062660413 0.0017235581 -3.5120247e-05 0.0013713888 -0.0030410802 0.0025669707 0.002049158 0.0017080521 0.002402223 0.0028132657 0.00024623194 -0.00056795357 0.00017287611 -0.0031055936 0.0028020716 -0.0021266441 0.002809281 -0.001414785 0.00021561424 -0.003054723 -0.0031861893 -0.0026122702 -0.0025770187 0.000125194 -0.002408821 -0.0016500711 -0.0017572355 -0.0014297661 0.0023374371 0.0016097967 0.002894257 0.0023645305 -0.0018981353 0.0024135986 -0.0030983011 -0.0008625229 -0.0025857221 0.0013975338 0.0006000769 0.0023486973 0.0009815661 -0.0023269497 0.0025708927 -0.001996309 0.002999236 0.0009864017 -0.001338431 -0.0015629979 -0.0014722407 -0.002048819 0.0031262469 -0.0008831986 0.0025908132 -0.0032267785 0.00070293027 -0.0004112049 0.002514743 -0.0030182004 0.0024791877 -0.0017019319 -0.0020045915 -0.0018830522 -0.00112639 -0.001137032 -0.0010652216 -0.0024974004 0.0002362589 -0.00019202392 -0.0005613331 0.0012523774 -0.002540063 -0.0010738075 0.0017184472 0.0028479544 -0.00326998 0.0023984455 0.0017698292 -0.0012932324 0.002858719 -0.0030739976 0.0024162268 0.0017879446 0.00043119828 -0.0017332514 -0.0013928843 -0.0011189266 0.0005360957 0.0005289014 0.002462748 0.0033258644 0.0029557792 -0.001335483 0.0032151302 -0.0002098469 0.001621811 0.0008496722 -0.0002099367 0.0012224825 -0.0017731381 -0.0019188925 -0.0025348815 0.0006354781 0.00217529 0.00029404284 0.0004189829 0.0010571989 0.0027115552 -0.0025666868 0.0007535839 -0.00249137 0.0012366041 0.0031701832 0.0025067527 0.00214201 0.002671592 0.002183715 0.0022855587 0.0028940293 -0.0016493468 0.0030709847 0.0016864006 -0.00071008323 0.0028291496 0.0016937808 0.0032163183 0.0009441336 0.0032891794 0.00039900144 0.0030430611 0.0011956557 0.0021882686 -0.001203777 0.002264303 0.0024145246 -0.0007111537 -0.00061985134 0.0012039152 -0.0023454758
les 0.0032451833 -0.0032601277 -0.0021664966 0.00092792866 0.0021439958 -0.0017891225 0.0009174975 0.003040437 -0.0022718073 -0.002033304 -0.001663214 -0.0012254707 0.0006165719 0.0032275442 0.0021459253 0.00013236403 0.00082358957 0.002813497 0.0030429931 0.001876251 0.0019820877 -0.0025402287 -0.0012758906 -0.0018934441 0.0020605915 -0.00075214985 -0.0029264784 0.0025397083 0.0027998944 -0.001106745 0.0030388865 -0.0002461199 -0.0012088398 -0.00012823025 6.4808926e-05 -0.0011682988 0.0009377472 0.0019099017 0.0022896698 -0.0029678221 -0.0007309095 -0.0018272658 0.0025070333 0.0021672344 -0.001453574 0.000775611 -0.0019845536 7.883191e-05 0.0031539197 -0.00086994725 -0.0017292392 -0.0024657364 -0.0009706473 -0.0002881046 0.0011759539 0.0032472964 -0.0011297583 0.0006339228 0.003227003 0.00051052886 0.00032883207 0.003267457 0.0030984867 0.0025693555 -0.0020568422 0.003327995 0.0019496623 0.003024222 -0.00066506624 0.0011166453 0.0022778523 -0.001297919 0.0022142834 0.00085428753 0.0031045766 -0.0010119347 -0.0010364564 0.0020717967 -0.0030260817 -0.0024179972 -0.0021666754 -0.0002496914 -0.0007876738 0.0022718399 0.003078864 -0.00030325295 0.00047094145 0.0006734522 -0.00067326624 -0.0026781138 0.00248035 -0.0014326338 0.0015255061 0.0030299013 0.0010144075 0.0010462634 0.0013539429 -0.00090040563 0.0012749231 0.00011254112 0.0018755706 0.001832457 0.0006097066 0.001916469 -0.0029893592 0.0021864525 0.0030753308 -0.0014023825 0.0005358501 -0.0017446271 0.0003527395 0.00092338957 0.0027202456 0.0001813376 0.00085235276 0.00043257832 0.002800841 -0.0019025676 -0.0020872767 -0.0012091728 -0.0007668499 0.0016803542 -0.0027067857 -0.0009445119 -0.0027324755 0.0017165701 -0.00085602124 -0.0030223692 0.001357243 0.0030057745 -0.0010125533 -0.0019461799 0.0010066294 -0.00014528274 -0.0033264789 0.0028059015 -0.002446296 -0.001643469 -0.00088569365 -0.0018174382 0.00057217 0.0032376046 0.0015240908 0.002696201 -0.00015681943 0.00021497448 -0.0008894507 -0.0029265205 0.0011437678 0.00069779117 -0.003140618 -0.0016561457 -0.0032446997 -0.0019065972 0.0013548473 0.0028809535 0.00137055 0.0007961547 0.002714926 -0.00037306984 -0.00046590448 -0.0029156078 -4.1930674e-05 -0.0008558575 0.0001286924 0.002426554 -0.0023471534 -0.0013154916 -0.002221535 -0.0011813716 -0.0011052771 0.00071237364 0.0011093895 -0.0016523957 -0.0015154302 0.00037956476 0.0018178276 0.0017912165 -0.0009895122 -0.0014221752 -0.0018722157 -0.00018166105 0.00064879097 0.0005084487 0.0024508433 -0.00091112417 -2.1974643e-05 -0.0018425445 -0.0003900218 -0.0025706545 -0.00031977653 0.00043655833 -0.0028649147 0.0029161945 -0.0030692888 -0.0032082256 -0.002837208 0.0024377562 0.0018218561 0.0030831539 0.0008567258 0.00028217633 -0.00084648014 0.0031192228 0.0009191696 0.0013652162 -0.00039431173 0.00030150136 0.0022081025 -0.00024216692 0.001113836 -0.00022400697 0.0017494658 0.0012133113 0.0008608433 -0.0017699644 -0.0015693669 0.0014360074 -0.001969057 -6.0068767e-05 -0.0002111721 0.0011644145 -0.0028140887 0.002939078 -0.00048291485 -0.0017769758 0.0013514896 -0.00064516347 -0.0025884942 -0.0014989328 -0.00012924234 -0.0029821575 0.0001901877 0.0008139312 -0.001075091 0.00085680006 0.0008269326 0.0033294053 0.00047683518 0.00067351264 0.00092652044 -0.00069262384 -0.0028995387 0.0026743913 -0.00065823237 -0.0032307713 -0.0021840015 -0.001315287 0.0013181157 0.001679527 0.0020286704 -0.0022567534 0.00022961259 -0.0009250939 -0.0017363989 0.0023270908 0.0013173223 -0.0010355023 -0.002758969 -0.0017135954 -0.00021651149 0.0026039216 0.0020147285 -0.0028172187 -0.0031878452 0.0023779452 -0.0007758554 -0.0012307696 0.0019166108 -0.0019481019 0.001697985 -8.08084e-05 -0.002291721 -0.00011054595 0.0021196639 0.0030979796 0.0007403044 0.0016833643 -0.0016581746 -0.00026585063 -0.0017725452 0.00039632083 -0.000597738 -0.0012108783 -0.0023381265 0.0032181437 0.0009919425 -0.00076040823 -0.0013946967 0.0025712624 -0.0021606183 0.0010405143 0.00026245238 0.0027742935 0.0022787256 -0.000969549 0.0008450333 -0.00055535755 -0.003151554 -0.00087115366
tapis 0.0004441746 0.0021802855 0.003328201 0.0030208183 -0.002671787 0.0021637953 -0.0019049124 -0.00032385826 0.00016094088 0.0021939778 0.0014900478 0.0015345756 0.0031610413 0.00012755474 -0.0020129045 -0.0021100335 0.0021439297 -0.0017475272 -0.0009499375 0.001358428 -0.0007634119 -0.0020084043 -0.00077455165 0.00040230632 0.0007277866 0.0020279244 -0.0017380003 0.0010259871 0.0024135585 0.00073170464 0.0017991634 -0.001615111 0.0020508706 -0.0025337604 0.0011642885 -0.0031072681 -0.0008681035 -0.0030243997 -0.0005294228 -0.0017882506 -0.0013146397 0.0003845509 0.00093344925 -0.00050879834 -0.002723505 -0.0019726742 0.00027309856 -0.0013154193 -0.0031434826 -0.00025832493 0.0022110895 0.0019929481 -0.003305753 0.0010395277 -0.001995767 -0.00306063 5.6737663e-05 -0.00012320677 -0.0023239998 -0.0020933524 -0.00080869516 0.0023655521 -0.002515293 0.0025660282 -0.00015848159 0.00036443115 0.0031608872 0.0015760533 -0.0011909222 0.0012452066 0.0011730953 0.0021122324 2.3113093e-05 -0.0014745621 0.00043942372 -0.0018047448 0.00047058583 0.0016420602 0.0017182827 0.003060546 -0.0025042216 -0.0018012146 0.0021564574 0.00045182626 -0.002203934 0.00029479663 0.0008923467 -0.0008429452 -0.0016533867 0.0016682517 0.0032072738 -0.002454891 -3.8440627e-05 -0.0008548196 -0.002121714 -0.0004595518 -0.0017502618 0.0030199985 -0.0019302563 0.0012286918 -7.916172e-05 0.0014063922 0.00070471526 0.0033319406 0.00020982702 -0.0018214755 -0.0003932309 0.00069017726 -0.0011243562 -0.002615589 -0.0018664205 -0.0022500225 0.0021177756 0.0013075189 0.002738512 0.0021732226 -0.0020426135 0.0009053171 0.0028240418 0.0005318856 0.001022743 0.001937538 -0.0029464571 0.0030415824 0.002273161 0.0028368144 -0.0027420875 0.0020585132 0.0022096904 -0.00045254748 -0.0020979552 0.00177556 -0.002286526 -0.0017744513 0.0011705633 0.0026936575 0.0028975646 -0.0014684383 -0.0030629234 0.0032025648 0.0020967694 -0.0013221117 -0.0028199097 -0.0015727782 -0.0013190758 -0.0010911505 0.0002730306 -9.905418e-05 -0.001037459 -0.0019986625 0.0031401734 -0.001575179 -0.0024206997 0.0025615767 0.0008392318 0.0028754652 -0.0014883721 -0.0022974678 0.00032830078 -0.00039099215 -0.0031323547 -0.0005343576 0.0010168664 0.0021885938 0.0022817473 0.0010694262 -0.0014810908 -0.0006130556 -0.0013134193 0.0019246384 -0.0021195698 0.00070100627 -0.0004484113 -0.0019375929 -0.002415404 0.0019508541 -0.002786068 -0.00022908329 0.0009424754 0.00257967 -0.002432636 0.0011015245 0.0032694992 -0.002325693 -0.001178286 0.0017111711 0.0017461284 0.0005413715 0.0026570451 0.00027719617 0.00062377215 -0.00053508324 -0.0027220924 0.0010859347 0.0006554548 -0.0029114017 -0.00022500237 2.5556883e-05 -1.9864242e-06 0.002903378 -0.00083625555 -0.0019675526 0.0024944455 -0.0024199109 -0.0029887063 -0.00059653126 -0.0027891458 0.00013006925 0.000648578 -0.0008231612 -0.0021493367 -0.000107059874 -0.000366168 0.0011644538 0.0027090046 0.001951857 0.0028136626 -0.0029893904 0.0031474957 -0.00078858534 0.0028990174 0.00079487247 0.0011950802 -0.0031938958 -0.0031621512 0.0029946403 -0.0009655893 0.00093880616 0.0021398142 -9.997567e-05 0.0032406321 -0.00034457166 -0.0032242914 -0.0023516158 -0.0003477188 -0.0028916334 0.002473816 0.0012064445 -0.0029156485 0.0028265743 0.0029765463 0.0019491231 0.0023032844 -0.0031903044 0.00016415596 -0.0030735438 -0.0012220057 8.4389845e-05 -9.346882e-05 0.00048842747 0.0010925146 0.0007089758 0.0017732823 0.002506832 -0.0019618964 0.0026524386 0.0019971693 0.0032619627 0.0015412859 -0.0011090918 -0.0012488023 -0.00020970781 -0.0005517328 0.0032908618 0.00037440142 0.0013357516 0.0011395188 -0.0029504343 0.002240206 0.0027303437 -0.0005552804 0.000777818 -0.0021597382 -0.0020419185 0.0027386816 -0.0010151399 0.0022466774 0.00051772833 -0.0006605212 0.0010184427 -0.0013403519 -0.00059514365 0.00046024323 0.0016290605 -0.00046840787 0.00021884323 -0.0026441503 0.003165052 -0.0029208502 0.00235664 0.0013017126 -0.0023326897 -0.0017650592 -0.0026460823 -0.001710093 0.0023568638 0.0032135395 0.0007182042 0.00021346848 0.0031748235
sur -0.0016578555 -0.00042776822 0.0010935458 -0.0021380112 -0.003233863 -0.0030867446 0.003006899 0.0017905645 -0.0015960757 -0.0027765473 0.00043131708 0.0009593542 -0.0004150947 0.00042362371 -0.0014404345 0.0015971219 0.00049172837 0.002959275 -0.0033255045 -0.0017565235 -0.0030342806 -0.000115972754 -0.002619102 0.0016770804 -0.0021322852 -0.0019842791 0.0016903034 -0.002719923 0.00048506737 -0.0024131802 0.003287474 0.0028779197 0.0005896509 0.0019295013 0.0015320719 -0.001997261 0.0032523156 -0.003227402 0.002683086 0.00091879326 -0.001018374 -0.0011872876 0.0030239844 -0.0018136363 0.0027289575 -0.0020029624 0.0027971256 -0.00018516461 0.002647533 -0.0010516573 0.0019930715 0.0029347816 0.000847946 0.00043924968 0.0016797308 0.0026675074 0.0028560048 0.0028309242 0.002350842 0.0026675498 0.0028665802 -1.1030435e-05 -0.00033457717 0.0005552638 1.0911624e-06 0.00022839228 -0.002866979 -0.0031982437 -0.00077155867 0.0029760667 -0.0012158625 -0.0023260645 0.0016264609 0.0003563726 0.000617007 0.0012176521 0.0011735578 0.0019087072 0.00041143337 0.0002814877 0.0030150835 0.0009274058 -0.0015676185 0.0021807288 0.0017377706 0.0009568556 -0.0010459446 0.0011122787 0.0021214327 0.0023603467 0.0003137219 -0.0028439225 8.5920496e-05 0.00012347341 0.0013143274 -0.00315632 0.003235957 -0.0023240924 0.0019204799 -0.0031432908 0.003216176 0.0024416097 0.0004205521 -0.0011350787 -0.00015022 0.00014087438 -0.0021364018 0.0019150528 0.00079046725 0.0012593118 -0.0024183393 0.0028420968 0.00016941786 -6.797552e-05 -0.0030238691 0.001349585 0.0022544786 0.0024516976 -0.0021391748 -0.0026186868 -0.0018412379 -0.0002009658 -0.0027793269 -0.0027467052 -0.0006391899 0.00037976226 -0.003168849 -0.0012443113 0.0002149268 0.0022699884 0.00057833036 -0.00021079421 -0.0024937983 -0.002247365 -0.00023147622 0.002489194 0.0018142898 -0.0004942302 0.00039076965 -0.0032019254 -0.0004614985 -0.0015420743 0.0019364369 -0.0007793375 -0.0015880219 -0.0031583714 -0.0004001049 -0.0023992567 -0.0005617392 -0.0013566077 -0.00079137844 -0.0010827783 -0.0027188242 -0.000416137 0.0005636478 -0.0013492147 -0.002547151 -0.0011955452 -0.0030157112 -0.00025280833 0.0019610017 -0.0009871153 0.0010539194 0.0016652393 0.0028228092 0.0018738051 0.0031695156 -0.0032155605 -0.002654225 -0.0022527187 -0.0024892362 -0.0026545394 -0.0025960566 -0.0009808755 0.00046538672 -0.00095826306 -0.0029387507 0.001661954 0.00030029693 0.0015301339 0.002398446 0.0025494313 -0.00026821575 0.0012199867 -0.0017078586 0.0006368939 0.0015127563 0.0032955543 -0.0010624964 0.0009464447 -0.0019121167 -0.00073685526 0.0027083652 -0.0013015524 -0.00039619327 -0.0030949914 -0.0031589253 0.0029609224 -0.0019009741 0.0016842639 -0.0023212023 -0.00081950385 -0.002674312 0.002500176 0.002042472 0.0017528232 0.0027926192 -0.00023217757 -0.003104243 0.0030385554 -0.0016428455 0.0026159966 0.0018446199 -0.00035969217 -0.0025547384 -0.0004866008 0.0020845123 -0.0023220277 0.00048069874 -0.0026506193 0.002907116 -0.0009519295 0.0031457674 -0.0019026916 -0.0032392414 -0.0028759679 -0.0013582782 0.0015698648 -8.064628e-05 0.0030745042 0.0010364047 0.0012492557 0.0009987832 0.0027162163 -0.0007989049 0.0024691129 -0.0031789045 0.00097369554 -0.00022722324 0.00015075247 0.0022810034 -0.00094732444 -0.0007855932 -3.3492248e-05 -0.0001658972 -0.0011916538 0.0020814943 -0.0021862225 0.0026306666 -3.1153362e-05 0.0008696135 0.0010743833 -9.388447e-05 0.00056876737 -0.0010468848 0.0015854852 8.1003505e-05 -0.0010935318 -0.0029048582 -0.0033326931 0.000104259256 -0.0019156035 -0.00036988655 -0.0014020312 -0.0028796084 0.00035403212 0.0019703635 -0.00073698995 -0.0023902722 0.0010511458 -0.00012822867 -0.0018403808 -0.00036854306 -0.00021321814 -0.0010610298 -0.0033183591 0.002546198 0.0012420026 -0.00084307115 0.0024357247 0.00015153011 0.0023910506 -0.00051585434 0.002497889 -1.4210542e-05 -0.002025787 -0.0015719502 0.003209475 0.00019368729 0.00034246684 0.0028167625 -0.002096135 -0.0005879529 -0.0027263064 -0.0022249182 -0.0028601622 0.0013102035 0.00091311533 0.0018718044 0.0008572527
est 0.0007045051 0.0019117184 -0.00070546946 0.0010574325 0.002814587 0.00012935718 0.0020981943 -0.002247856 0.0021919406 0.0015631588 0.0016934494 -0.0033062617 -0.0001431481 0.0010687042 -0.0019419964 -0.0022312626 0.0021213018 -0.0022745836 -0.0017275 0.0027072795 -0.002340099 0.0028484582 0.00021820744 0.001468569 -0.0010041468 -0.001809245 -0.0029825112 -0.00020415783 -0.0017007458 -0.001025345 0.002703818 -0.0025493035 -0.002103093 -0.0017545592 -0.0022012468 -0.0029468744 -0.0003700137 0.0031486594 0.0026788458 -0.0017580322 -0.0027125024 -0.0007524649 -0.0030889274 -0.0016892465 -0.0019826023 0.0010083739 -0.002523014 0.00041686176 0.0007623005 0.0017711051 -0.0006734653 -0.0032572201 0.0017405557 -0.0019688313 0.0016285853 0.00065825146 0.00293914 0.00051044585 -0.0006091543 0.0021629233 -0.0023566405 -0.0027963542 0.001263057 -0.0008589836 -0.0013946132 -0.00064162613 -0.0032916975 8.6845954e-05 -0.00035221817 -0.0009904723 0.0008335483 0.001564465 0.0021142021 -0.0026379155 -0.0016629982 -0.0029291566 -0.0029830118 -0.0012433537 -0.00042456866 -0.0027375445 -0.0017921067 -0.0007172581 0.0021142291 0.0005228694 0.0027715627 -0.0027720693 -0.0015252916 -0.00026802777 0.002933393 0.00036878386 0.0005133259 0.0004302617 0.00097420695 -0.0031319822 0.0010848006 0.0018215616 0.0017621092 0.0014799627 -0.002695456 -0.0013532591 0.0027829702 -0.0001910305 -0.003145593 0.0015945458 -0.0020150458 0.0022271646 0.0017912594 -0.0016818909 0.00085647625 0.001805547 -0.0011951018 -0.0005053445 0.0030565239 0.0030210698 -0.0031309882 0.0025224364 0.0032960165 -0.0009467232 0.000819782 -0.00093445025 0.002881815 -9.442766e-05 0.0018787694 0.0030709652 0.0013700823 -0.0023734632 -0.0006419432 0.0003260084 0.0006780255 0.0009847382 0.0031497865 0.0014670336 0.0033046333 -0.0028859011 -0.0019181387 0.0006621019 0.0012187243 -0.00033039332 -0.0023038827 -0.0010705543 -0.002842524 0.0031369047 0.0012414785 -0.0026264726 0.0010623229 0.0013912785 -0.0018796615 -0.0019709305 0.0003461222 0.0029873482 -0.003215427 2.0968914e-06 -0.002288315 -0.0003107496 0.0010136672 -0.0016766556 -0.0009253347 0.00022519588 -0.0021207405 0.0024288595 0.0014594742 -0.0028528448 -0.00071632385 0.0010548433 -0.0027758647 -0.0023563043 -0.0028179137 -0.0018328639 0.0029520325 0.0023590163 0.00096190453 -0.0028515232 0.001914411 0.0015444724 3.9658942e-05 -0.002947646 -0.0006279099 6.36216e-05 -0.0025859808 0.00082338654 0.0001612556 -0.0023533432 -0.0027564697 0.0020140635 -0.0027834969 -0.0018599284 0.0018600416 -0.00016211708 -0.0010181216 -0.0017314589 -0.00039931576 0.0017572391 -0.0019821464 -0.0016590579 -0.0016495411 -0.0015854493 -0.002660031 -0.003252155 0.0025273887 0.0026655837 -0.0014281059 -0.0031093538 -0.00062417187 -0.0012360907 0.00303287 0.0009800474 -0.0019927148 -0.0011194284 -0.0033008277 0.0006480404 -0.0013294562 -0.0009029011 0.0017254968 0.0025330074 0.0014612754 -0.0022734723 0.0022328806 -0.0032105974 -0.002329096 -0.002668667 -0.0007543103 0.00015994668 -0.0012574275 0.0006151243 0.0030690618 0.0022260186 -0.0003516082 0.0030309863 0.0005189653 -0.0006579705 -0.0021983166 0.0021579675 -0.003023201 -0.00063220185 0.0025641327 -0.0008622869 0.00053539756 -0.002448705 0.0016593604 0.002457689 -0.0031028464 -0.0010926183 0.002630913 0.0009779405 4.847447e-06 0.00011443615 -0.003288476 0.00331225 -0.00066711346 -0.001629107 0.00091641344 0.00034332395 -0.0019771964 0.0019308813 -0.0008344885 -0.0020594602 0.002411903 0.0021544918 0.002940094 0.00038779815 0.00017000039 -0.0026432066 0.0015496277 0.0031203784 -0.00022654653 -0.0005876565 -0.0012710559 -0.00016395887 -0.002539145 0.0018964151 0.00049696205 0.003097582 -0.0021414682 -0.0016964101 -0.0020782168 -0.0024255638 0.00091885566 0.0016315393 0.0004473233 0.0011802498 -0.003129425 -0.00035652996 -0.0025809621 0.0009840457 -0.0008953786 0.0029609997 -0.00114478 0.0022794064 0.0013716232 0.00045479776 -1.3487339e-05 0.0027241781 0.0007872458 0.0027527427 0.0011117951 0.001807704 0.0017006377 -0.0025429272 -0.0019295334 0.00041139245
chat 6.4769585e-05 0.0007151123 0.0003552143 0.0025288984 -0.0014738981 0.00010819912 0.0023355118 0.0007505981 0.0014142501 0.0014344259 -0.00042188208 -0.0027741918 0.001014752 -0.002957714 -0.00088695326 -0.0031306816 -0.00015400529 -0.0026210973 0.0024713255 -0.001630106 0.0033061 -0.003010755 -0.0014373919 0.00064297556 -0.0009991435 0.0004819278 -0.0012269481 -0.000298057 -0.0019091221 -0.003273671 0.0021130661 0.00012788494 0.0021698386 -0.002490876 0.0012211836 -0.0032992954 0.0025369104 0.0019748488 -0.0020391599 0.0027376867 -0.0018600158 -0.0028511996 0.0005000953 0.0010599876 -0.0026988669 -0.0029780876 0.0030571076 0.00054792484 0.00029144206 0.0008260775 -0.0011690478 0.00057834666 0.0006526943 0.003268667 -0.0018693769 0.00075767556 0.002102381 -0.0022257774 -0.00297793 0.002885406 0.0022793503 -0.0013399248 0.0019141149 0.0002628398 -0.0016702279 -0.0004499189 -0.0016327882 0.0020449257 0.00065395515 -0.002773313 -4.875342e-05 -0.0008825803 0.0022021756 -0.0003818965 0.0025553675 0.0006494252 -0.00127684 0.002719386 0.0009831786 -0.0013233459 -0.001866614 -0.0010297557 -0.0017115235 0.0011467071 -0.0030942115 -0.0019402842 0.001113741 6.5883396e-05 0.0019983673 -0.0012018597 -1.99159e-06 0.0008250006 0.0018202185 0.00053712924 0.0032720314 0.0012394043 -0.0023940594 -0.00046869158 -0.0027893765 -0.0017756912 -0.0007317992 -0.0032358833 0.0030984299 0.00067732256 -0.00038706063 -0.001834569 -0.0028366104 -0.0033011583 0.0029814616 -0.0008331418 0.0015307923 -0.0015057882 0.0033193529 0.0012182402 0.0003418978 -0.0013480346 0.00040354053 -0.00088226795 0.0024502461 0.0014927511 0.00032889406 0.0011610293 0.0012381169 -0.0022617916 0.002976921 0.00057874364 -0.0019291547 0.002885561 -0.00043049257 0.0027290126 -0.0005022903 0.0023292173 0.0009087988 -0.0014532431 -0.0012493094 0.0030639274 0.000530622 -0.002002337 0.000116540985 -0.00065413275 0.00052817503 -0.0025724391 0.0024613624 0.0004374087 0.0026250656 0.001484348 -0.001464624 0.0012508937 -0.00021282832 -0.0032854164 0.0027473767 0.0032164578 0.0032177968 -0.0012666015 -0.0028165411 0.0016092348 -0.002551827 0.0028440172 0.00092008355 0.0018677791 0.0020388314 0.00015493591 -0.0006982982 0.00025772414 0.003278653 -0.0023748453 -0.00051748473 -0.0007861805 0.0016220026 0.002150013 -0.0013773465 0.0012078898 -0.001493709 0.0010901554 0.0027228245 0.001209536 -0.0015242704 -0.0010030548 0.002622135 0.0032013536 0.0019390313 -0.0010913451 -0.0006084275 -0.0020857977 -0.0014318582 0.0011247874 -0.002162582 -0.002205387 0.0027038066 0.0031684872 0.002713528 0.00050347805 -0.0029319632 -0.0025323888 0.00052402617 -0.003175877 -0.0024700698 0.0006747079 -0.00097372296 -0.0030523369 0.0021384775 -0.002983714 -0.0024484908 -0.00058371463 0.0005660029 -0.00034474014 -0.0017347578 0.0021930838 0.0029276037 -0.0024706991 0.003268522 0.0024555493 -0.0024869083 -0.0006333192 0.001417346 0.0023532016 -0.0012212289 -0.0023243607 0.001574945 -0.003012869 -0.0019501011 -0.00042782704 0.0018269726 -0.001895647 0.0015949286 -0.00014498194 0.0008890879 0.002134643 0.00047254364 0.0025695248 -0.000107467175 -0.002754568 0.0030594997 -0.0016194009 0.0015739687 -0.0013009278 -0.002443173 -0.0021708831 0.0015591113 -0.0002198108 0.00048675656 -0.002976093 -0.0017155175 -0.0020181409 0.0028042626 -0.002899144 0.0016749481 -0.00028711717 6.312569e-05 0.0029332526 -0.0011951459 -0.002312446 0.00025452653 0.0025809451 0.0030402879 -0.0012282372 0.0009109358 0.0016475371 -0.0017640161 0.0022841783 -0.00215099 0.00070028106 0.001529086 0.0014617041 -0.0015554281 0.00088080723 0.0024366546 0.002870563 -0.0031708435 0.0018582491 0.0016560212 -0.000531586 0.0030622948 -0.0013936702 -0.0005829076 -0.0022877692 -0.0012588918 8.089185e-05 -0.0010905111 -0.0018057545 0.0021896248 -0.0017676187 -0.0021072102 0.0025469891 0.0032170613 0.0013316397 8.775393e-06 0.0002630973 -0.00032051763 0.0022875508 -0.0020843316 0.00016920328 0.0014307165 -0.0007038045 0.00029796083 0.0012367137 0.0032366845 0.0007252534 0.003166721 -0.001943281
